;0.13644034575351754;0.21497427715756007;-0.4051607257528616;0.16546887625930193;-0.21601756783391224;-0.1739953849964129;0.7370189203013015;-0.5260273910391271;-0.8010866583803534;0.3334244356819277;-0.08346212844404706;-0.09502716900168247;-0.9257456536500925;-1.1507305941959396;-0.6314985762495102;-0.07309092244712269;-0.4188218192723378;-0.17718897050092716;-0.24827229266467615;-0.17132129620614878;0.3113738366031488;1.0230929111872993;0.186390265493835;0.33588196187793296;0.447418618096812;-0.10736181321055498;0.8121737251691106;0.29144776271719325;0.22131934567361505;0.29640694949648044;0.3894051413702677;0.1412484899296392;-0.2616263985225089;-0.8202965663794636;-0.3037511306152425;-0.5458009499769184;0.5040384962696054;-0.7900149147073707;0.27881612487126545;0.8129339062112227;-0.42094682667694444;-0.2677213064880923;-0.06039378847078639;0.19206136660523554;-0.3582203255290507;-0.13766363465858886;-0.8702438431709558;0.6732267759065212;-0.584725762786678;-0.6020212345303378;-0.9113175508129827;-0.3357963081690076;0.14944338853817374;-0.6716227893274913;-0.0976283816917382;-0.7892873710652998;0.72293624263442;0.5400631021372941;0.012347052935161973;0.7327729589461838;0.8608293937848532;-0.20427004073341695;-0.5510903075541418;-0.15617287051681925;-0.030079313277064094;0.14495383269202927;-0.6275521330192734;-0.34085472558452773;-0.6941938014739208;0.8184091974994976;0.36584152470464715;-0.2948786772604685;-0.315853710356678;-0.05902206857088761;0.07959993968237503;-0.516021733681889;-0.05439881863181087;0.07057976129195256;0.7654643138761607;-0.4075618011840064;-0.5700154099539874;0.7060600442227662;0.345812446435532;-1.1226127229574279;-0.09480527321212871;-0.05671633045411504;-0.4666643219752356;-0.2939454656945242;-0.033682061774875365;0.8335378447746121;-0.5975778145115103;0.29556237018639064;0.6315307831172602;-0.21133397349905117;0.582925342160425;-0.5952295934323253;0.08797809607307061;-0.8024744566461854;-1.0546319106488555;-0.5413459968617752;-0.08471626789054022;0.776655727797129;-0.24965279642275456;0.25968415802265155;-1.4167460681511879;0.5027422752790789;-0.060389815258870425;-0.4932892158409124
