;-0.07803638259810854;-0.5485649723865581;0.10760868951724224;-0.6957233176818605;-0.5061539696980422;-0.2353841980009386;0.19578985687367173;0.01871443617419731;0.27153634223770134;-0.20565363663707195;0.5317470573728378;0.11173717056700985;0.26058692521078197;-0.02606678668424223;-0.12289484316698869;0.16945217377853655;0.23890033198814042;-0.40501217585460364;0.21093348454836772;-0.01473801952751863;0.07931848183986213;-0.2876554938447125;0.8870222077807675;0.622437302782781;0.45030514541187855;0.25095740842264513;-0.39441927694747386;0.29081992985172966;0.3952364058188911;-0.7815631217830686;0.3345637008739249;-0.012962478301631853;-0.4604294252398128;-0.17080506691959504;-0.5817912760242507;-0.43400928048429066;1.403326607054341;-0.1527182791146503;-0.2694718802261276;0.18267998626177107;0.4322581339093934;0.8016434341160915;-0.142196442276101;0.562231975897159;-0.05307316437256125;0.1629035238436354;0.044662649104101025;1.0397254009021626;-0.2734487006364091;0.7904789557789538;0.9718033333934398;-0.22229160134111642;1.3091807206252752;0.6779883702215448;1.0984500251406908;-0.09917520926513256;0.3126112630685173;0.04547934926632066;0.3945299675625345;0.45751846876886165;-0.5313565610712476;0.15662481501544634;0.07692420873777471;0.48072511318075756;-0.3218782052785517;-0.21832618728656147;-0.36210638774723175;-0.26249949088416946;0.028766750484318853;0.29478968441706827;0.8365029094119586;-0.8986154937505794;-0.23749778736753488;0.1545036903196949;-0.5058223693917788;0.46823689289322495;-0.6862708207885856;-0.31995689974123204;0.4713596025731028;0.27156317581409767;0.21775270967995566;0.5526890146521272;-0.36656031401476913;-0.04728491025662606;-0.447419334160508;1.0696137448632865;0.11019409262097285;-0.08913903953210874;-0.4696747313286206;0.5153662122572138;0.6645238311597802;-1.2897090872674246;-0.08216685269051485;0.02293134420414887;-0.11639565281616639;0.140844185780132;-0.35117694517973197;0.14158919984274732;-0.8234294917257519;0.4239378821065573;0.2766135494621587;0.24407786809012566;0.7184659999871978;0.40121985646570674;0.48228590621632655;-0.07447899757395914;0.2484302221038121;0.585699252296626;0.18771851325800062;0.20552931381525077;-0.29988531355200326;0.2905672276753208;-0.15582003361519658;0.3987630297737271;-0.7646987960555296;0.2960423672805894;-0.7396881163701121;0.011850003257293866;-0.7715392911551336;-0.05698204680788382;0.23683343739626095;-0.45156332342737215;0.4124671059644658;-0.12955771458595564;0.6118492347849147;-0.41597563010678057;0.9218552237390746;0.39792507039962527;0.3154970517652245;0.12511013036031582;1.2115118663540176;0.2860582774998036;0.11944895241193776;-0.39242269314600803;-0.43141319723719124;-0.6186137329532191;-0.004909977483022732;0.07101804903091767;-0.16348366749058968;-0.04883160611313432;0.0244292226882839;0.05879618981064646;-0.02741954082022595;0.018480116395511514
