;-1.0556168297696258;0.3268578318670766;-0.2290090293978349;0.3341061362839574;-0.03610524863476247;0.2817264114753894;-0.027633348522120963;-0.6819098896822501;-0.11494501133726817;0.4774939239025688;0.2531409516931782;-0.2509534780395523;-0.1335194792271194;0.10396879131491693;-0.06351657487630791;0.3397555788055874;0.3609043460646969;-0.06307049993278568;-0.3230259030764144;0.4192931976950105;-0.11913610813653369;-0.830680260848609;0.5906780942999275;-0.2654012595825054;0.3426084137886471;-0.001757783658105705;0.38836838915373656;-0.6036856570282255;0.18330959977566558;0.018333649305068356;-0.1376906458207766;-0.47369383002961224;-0.836249952169287;0.026279127263256832;-0.6202782603992304;0.43947258313427734;-0.02470813128596552;-1.2879680392215571;-0.46347862960450353;0.46755763490309543;0.3653865854662964;0.37669437279924123;-0.37217502484264275;0.03550225211595079;-0.024790623191423087;1.0930199501550264;-0.16254160579049357;0.4289265022974672;-0.4605267061775429;0.1091729288342051;-0.6816322046982588;-0.9405048590299332;0.04896073513457111;-0.6405888185924832;0.15792985351118782;-0.6847043219927883;0.025506067547958682;-0.19763389447019214;-0.15395237745050275;0.021544368280000576;0.6078073474547866;0.9183243598031651;-0.6092491988144892;0.13082923038078648;-0.7442232735220872;-0.07132955222014052;-0.11915019582324139;0.08521726475905875;-0.06017184624367773;0.04129850603236776;-0.14760528941856865;-0.06536520643537759;0.12164318247233209;0.16988832896917644;0.3482050582878861;-0.5642568030877845;0.4048173169915156;-0.6412044690148716;0.14095897005010136;0.6839300823067072;0.02096421793524102;-0.29832557902384554;-0.3196559954192112;-0.507047953657764;0.09172128445500305;-0.8625970856798211;0.1720469213055422;-0.6672667463424282;-0.410513086222894;0.8888050554424561;-0.030942756725053797;0.09537446379436326;0.19011877972278904;-0.5714167275875639;0.09392546317990139;0.4593857618796693;0.25693292394701484;0.06194311563114642;0.6382106517999748;0.15442253150835136;0.8324866209429778;-0.4628114724030249;0.05526239486387277;-0.9504681340678874;-0.11527235634104886;-0.9955710462236222;-0.19576399684839776;0.4353558466730187;-0.7626650938420622;0.36379541749272787;-0.46200181516310385;0.01782594997275132;-0.3536399424858188;-0.20735349194614014;-0.2373271434920074;-0.26792968827249347;0.4978471086525707;0.12346192796733445;0.24834405058832928;0.2180729996068741;-0.46411756292385353;0.06864416314466947;-0.594679873982616;0.14993461817911619;-0.9573321434721407;-0.26931326712473236;-0.0669742116466602;-1.4170315120380867;-0.28494549084605875;-0.20726911800876655;1.1613308251932233;-0.4762722728263828;0.34156966647819326;0.18614110617093813;-0.12138314872598252;0.5642061329712299;0.5152078904999919;0.04924668119157041;-0.4157963519248214;0.37498255201034814;-0.09991830376578027;0.694747503246889;-0.04502459518158389;0.32144058660701536
