;-0.2933485412397815;-0.6159679097494773;-0.2832489644673587;-0.8404630970551988;-0.5831464419066953;-0.6888090188125421;0.3227230623019262;0.7864455853683351;-0.18226175522361782;0.05190228178575298;0.3244171672748732;-0.5447750374447853;-0.9174071755813729;-0.7166629165824743;-1.1513923218657762;0.19816350715547282;0.6240362431031905;-0.023400774087448103;-0.39426549884137985;0.30442889984358185;0.36312919899033896;0.07056627901488415;-0.7529174210438722;-0.3496061468142493;0.15088613921090244;0.14379357264784481;1.5620009484971458;0.1290719915891186;-0.28547280454542623;0.6290807852925232;0.40411435021472064;0.687684076420784;-0.1934107101315366;0.6668150598315293;0.17605138877444135;-0.2300485776634684;-1.110797409157337;-0.4424137069546115;-0.006442029809169637;0.5440062978548367;-0.11338015842301861;-0.7984245291915183;0.7180319055145922;-0.4503012617422449;0.1604269210146557;0.0881697585450759;0.7401874515639738;0.5040469259149039;0.679081866366381;-0.08982093761337195;-0.25511965149936855;-0.7456005317175206;0.07091275721980417;-0.19017343718995583;-0.8761385646975145;-0.39662497078089876;-0.8450596808446261;-0.33042896978564396;-0.1430080548226443;-0.4254114119946903;0.32582627611365184;0.5334733734355652;0.3826660227589395;-0.14620160492844084;-0.02533388367689814;0.6473138787617233;0.3570608082570016;-0.23911497037566082;-0.4130112129768553;0.06252775951695753;0.43235996162498985;-0.1257990978240394;-0.39901571187098755;0.2928770594117446;0.1279223185784953;0.2093400650094983;-0.32635234572065414;1.1040787262844245;-0.0780214148288428;0.33698390520776156;0.17921258885190242;0.9765083872926993;0.24373101130288655;-0.14021697134930555;1.0444769743354638;0.7862871654218835;-0.8244677196463407;-0.519107195812659;-0.2993621049078991;-0.45085081588870685;-0.26474100283584323;0.6621384445426745;-0.23892887791004377;0.14096681735469488;-0.009990011033138523;-0.49274162913276537;0.1726591268606635;-0.6990112565222207;0.17620142420056098;-0.28363227403160035;0.27046783906491595;0.5087498113678371;0.514989256426303;0.03757602927445762;-0.48741361656153187;0.12510100984591455;-0.540309043008894;-0.4028252280554697;-0.19018185483371222;0.5293715299184759;-0.6251544436474875;0.09189342253801379;0.7015220861151135;-1.2697802795787927;-0.42863357708174343;-0.49809550826642984;-0.6910077529945229;-0.13221347631952257;-0.034687958922289416;0.36380427636819074;0.2367672525263094;-0.26073290675992344;-0.28711614362004345;0.3787209039000803;-0.2442571548577023;-0.3287257250866413;0.25181564526126515;-0.20658781541409388;0.1205663329964609;-0.3082502724375424;-0.5498454170442806;-0.2569922049973794;-0.24781369700098108;0.9337629229361387;-0.20126544157411896;-0.42192733330482396;0.553746231838294;-0.15263166694744368;-0.7031023377878312;0.03718189083478275;-0.7822315971514435;0.1516964217145305;-0.28408104253795846;-0.28823215274122627
