;0.2240106370998589;-0.05028225818874786;-0.1254490735431491;0.09299282184148042;0.02751091640290526;0.031122341616085805;-0.0791498878207982;-0.08316715745364374;0.1248488775727662;-0.06886173364384397;0.023566165627010832;0.067862010788315;0.18939709617753062;-0.07440726065095599;-0.0574649793062573;-0.04122241188313557;0.08296544844967607;0.1158951726334896;0.04784795282071686;-0.03316936625426649;-0.0471760538369608;-0.05543961535075639;-0.07936732653785199;-0.07673783935434698;0.03907241487840023;0.07275117001768978;0.005592490636280755;0.04288715682935968;0.040690650939178855;0.007628274209548658;0.093293512597983;0.070101166925152;0.07421943037956721;0.26927655395253874;-0.18730854269052594;-0.04213302816894379;0.21019567830287073;-0.056320161832209135;-0.11387878136763951;0.02390083889058658;-0.1101625924537456;-0.05253022172851262;-0.07735624088892279;0.0014882537516887461;-0.0014862258021073388;0.10022580756982653;-0.038718566522330036;0.033302565128439904;-0.03385054977991711;0.00921361048949029;-0.1030413139318639;0.2210593523719278;-0.04527831986435734;-0.06726784887474677;-0.06187192172795717;-0.010395874745202812;0.11867369139083057;-0.04297791472343365;0.10548993693837136;0.03235067256096415;0.08553099852640907;0.14094389245527617;0.007228318730777264;0.09311626185730736;-0.1393996990378934;-0.2605126231208058;0.013250787579476956;0.0011366570812195085;0.11842843961836087;0.13246027291918525;0.11391277310283995;-0.0020975835369545196;-0.0648987743616802;0.16565480465543952;-0.03873093928471571;-0.09852603660261984;0.1416906723102007;-0.15143758810231994;0.018077350985107054;0.01956404516238897;-0.1477317516099945;-0.12844148241763248;0.040005765717448516;0.15974041030777877;-0.08651349170831775;0.08757575717436814;0.03755591114949808;0.011188068532041365;0.04716031570257004;0.11156063114954079;0.10943472537897242;0.01233831246473328;-0.014911601978719017;0.01678811527879726;0.03858781692858606;-0.017314652046626765;0.08913187136155011;-0.017621934523567202;0.005861772223701348;-0.2906575957829205;-0.1454399351612156;-0.040375438108620404;0.0766227984143649;0.02124503263405396;0.03932206411304077;0.18476137655109193;-0.03827911822959645;-0.18003801215758472
